digraph Tree {
node [shape=box] ;
0 [label="X[0] <= -0.385\nentropy = 1.581\nsamples = 120\nvalue = [36, 41, 43]"] ;
1 [label="entropy = 0.0\nsamples = 36\nvalue = [36, 0, 0]"] ;
0 -> 1 [labeldistance=2.5, labelangle=45, headlabel="True"] ;
2 [label="X[0] <= 0.265\nentropy = 1.0\nsamples = 84\nvalue = [0, 41, 43]"] ;
0 -> 2 [labeldistance=2.5, labelangle=-45, headlabel="False"] ;
3 [label="X[0] <= 0.193\nentropy = 0.446\nsamples = 43\nvalue = [0, 39, 4]"] ;
2 -> 3 ;
4 [label="entropy = 0.0\nsamples = 32\nvalue = [0, 32, 0]"] ;
3 -> 4 ;
5 [label="X[1] <= -0.023\nentropy = 0.946\nsamples = 11\nvalue = [0, 7, 4]"] ;
3 -> 5 ;
6 [label="entropy = 0.0\nsamples = 4\nvalue = [0, 4, 0]"] ;
5 -> 6 ;
7 [label="X[0] <= 0.245\nentropy = 0.985\nsamples = 7\nvalue = [0, 3, 4]"] ;
5 -> 7 ;
8 [label="X[1] <= 0.06\nentropy = 0.971\nsamples = 5\nvalue = [0, 3, 2]"] ;
7 -> 8 ;
9 [label="X[1] <= -0.014\nentropy = 0.918\nsamples = 3\nvalue = [0, 1, 2]"] ;
8 -> 9 ;
10 [label="entropy = 0.0\nsamples = 1\nvalue = [0, 0, 1]"] ;
9 -> 10 ;
11 [label="X[1] <= 0.022\nentropy = 1.0\nsamples = 2\nvalue = [0, 1, 1]"] ;
9 -> 11 ;
12 [label="entropy = 0.0\nsamples = 1\nvalue = [0, 1, 0]"] ;
11 -> 12 ;
13 [label="entropy = 0.0\nsamples = 1\nvalue = [0, 0, 1]"] ;
11 -> 13 ;
14 [label="entropy = 0.0\nsamples = 2\nvalue = [0, 2, 0]"] ;
8 -> 14 ;
15 [label="entropy = 0.0\nsamples = 2\nvalue = [0, 0, 2]"] ;
7 -> 15 ;
16 [label="X[0] <= 0.337\nentropy = 0.281\nsamples = 41\nvalue = [0, 2, 39]"] ;
2 -> 16 ;
17 [label="X[1] <= -0.019\nentropy = 0.764\nsamples = 9\nvalue = [0, 2, 7]"] ;
16 -> 17 ;
18 [label="entropy = 0.0\nsamples = 2\nvalue = [0, 2, 0]"] ;
17 -> 18 ;
19 [label="entropy = 0.0\nsamples = 7\nvalue = [0, 0, 7]"] ;
17 -> 19 ;
20 [label="entropy = 0.0\nsamples = 32\nvalue = [0, 0, 32]"] ;
16 -> 20 ;
}